digraph Tree {
node [shape=box, style="filled, rounded", color="black", fontname=helvetica] ;
edge [fontname=helvetica] ;
0 [label="LikeCount <= 2699.0\nentropy = 0.9926\nsamples = 5240\nvalue = [2885, 2355]", fillcolor="#e581392f"] ;
1 [label="ViewCount <= 21475000.0\nentropy = 0.7846\nsamples = 851\nvalue = [652, 199]", fillcolor="#e58139b1"] ;
0 -> 1 [labeldistance=2.5, labelangle=45, headlabel="True"] ;
2 [label="LikeCount <= 206.0\nentropy = 0.8785\nsamples = 628\nvalue = [441, 187]", fillcolor="#e5813993"] ;
1 -> 2 ;
3 [label="ViewCount <= 4050000.0\nentropy = 0.1257\nsamples = 116\nvalue = [114, 2]", fillcolor="#e58139fb"] ;
2 -> 3 ;
4 [label="entropy = 0.0\nsamples = 108\nvalue = [108, 0]", fillcolor="#e58139ff"] ;
3 -> 4 ;
5 [label="LikedOrDisliked <= 42184.5\nentropy = 0.8113\nsamples = 8\nvalue = [6, 2]", fillcolor="#e58139aa"] ;
3 -> 5 ;
6 [label="entropy = 0.0\nsamples = 2\nvalue = [0, 2]", fillcolor="#399de5ff"] ;
5 -> 6 ;
7 [label="entropy = 0.0\nsamples = 6\nvalue = [6, 0]", fillcolor="#e58139ff"] ;
5 -> 7 ;
8 [label="LikeCount <= 1163.5\nentropy = 0.9438\nsamples = 512\nvalue = [327, 185]", fillcolor="#e581396f"] ;
2 -> 8 ;
9 [label="SubCount <= 194814.5\nentropy = 0.836\nsamples = 323\nvalue = [237, 86]", fillcolor="#e58139a2"] ;
8 -> 9 ;
10 [label="ViewCount <= 1425000.0\nentropy = 0.9764\nsamples = 183\nvalue = [108, 75]", fillcolor="#e581394e"] ;
9 -> 10 ;
11 [label="entropy = 0.0\nsamples = 16\nvalue = [0, 16]", fillcolor="#399de5ff"] ;
10 -> 11 ;
12 [label="SubCount <= 9002.0\nentropy = 0.937\nsamples = 167\nvalue = [108, 59]", fillcolor="#e5813974"] ;
10 -> 12 ;
13 [label="Category <= 12.5\nentropy = 0.9993\nsamples = 97\nvalue = [50, 47]", fillcolor="#e581390f"] ;
12 -> 13 ;
14 [label="ViewCount <= 5750000.0\nentropy = 0.7219\nsamples = 30\nvalue = [6, 24]", fillcolor="#399de5bf"] ;
13 -> 14 ;
15 [label="LikedOrDisliked <= 49562.0\nentropy = 0.5917\nsamples = 7\nvalue = [6, 1]", fillcolor="#e58139d4"] ;
14 -> 15 ;
16 [label="entropy = 1.0\nsamples = 2\nvalue = [1, 1]", fillcolor="#e5813900"] ;
15 -> 16 ;
17 [label="entropy = 0.0\nsamples = 5\nvalue = [5, 0]", fillcolor="#e58139ff"] ;
15 -> 17 ;
18 [label="entropy = 0.0\nsamples = 23\nvalue = [0, 23]", fillcolor="#399de5ff"] ;
14 -> 18 ;
19 [label="SubCount <= 5422.5\nentropy = 0.9279\nsamples = 67\nvalue = [44, 23]", fillcolor="#e581397a"] ;
13 -> 19 ;
20 [label="SubCount <= 485.0\nentropy = 0.8179\nsamples = 59\nvalue = [44, 15]", fillcolor="#e58139a8"] ;
19 -> 20 ;
21 [label="entropy = 0.99\nsamples = 34\nvalue = [19, 15]", fillcolor="#e5813936"] ;
20 -> 21 ;
22 [label="entropy = 0.0\nsamples = 25\nvalue = [25, 0]", fillcolor="#e58139ff"] ;
20 -> 22 ;
23 [label="entropy = 0.0\nsamples = 8\nvalue = [0, 8]", fillcolor="#399de5ff"] ;
19 -> 23 ;
24 [label="SubCount <= 163027.5\nentropy = 0.661\nsamples = 70\nvalue = [58, 12]", fillcolor="#e58139ca"] ;
12 -> 24 ;
25 [label="LikeCount <= 397.5\nentropy = 0.3999\nsamples = 63\nvalue = [58, 5]", fillcolor="#e58139e9"] ;
24 -> 25 ;
26 [label="SubCount <= 23137.5\nentropy = 0.6632\nsamples = 29\nvalue = [24, 5]", fillcolor="#e58139ca"] ;
25 -> 26 ;
27 [label="entropy = 0.0\nsamples = 11\nvalue = [11, 0]", fillcolor="#e58139ff"] ;
26 -> 27 ;
28 [label="entropy = 0.8524\nsamples = 18\nvalue = [13, 5]", fillcolor="#e581399d"] ;
26 -> 28 ;
29 [label="entropy = 0.0\nsamples = 34\nvalue = [34, 0]", fillcolor="#e58139ff"] ;
25 -> 29 ;
30 [label="entropy = 0.0\nsamples = 7\nvalue = [0, 7]", fillcolor="#399de5ff"] ;
24 -> 30 ;
31 [label="SubCount <= 8731622.0\nentropy = 0.3971\nsamples = 140\nvalue = [129, 11]", fillcolor="#e58139e9"] ;
9 -> 31 ;
32 [label="LikedOrDisliked <= 32239.5\nentropy = 0.2926\nsamples = 136\nvalue = [129, 7]", fillcolor="#e58139f1"] ;
31 -> 32 ;
33 [label="LikeCount <= 552.5\nentropy = 0.9024\nsamples = 22\nvalue = [15, 7]", fillcolor="#e5813988"] ;
32 -> 33 ;
34 [label="SubCount <= 784110.5\nentropy = 0.3373\nsamples = 16\nvalue = [15, 1]", fillcolor="#e58139ee"] ;
33 -> 34 ;
35 [label="entropy = 0.0\nsamples = 13\nvalue = [13, 0]", fillcolor="#e58139ff"] ;
34 -> 35 ;
36 [label="entropy = 0.9183\nsamples = 3\nvalue = [2, 1]", fillcolor="#e581397f"] ;
34 -> 36 ;
37 [label="entropy = 0.0\nsamples = 6\nvalue = [0, 6]", fillcolor="#399de5ff"] ;
33 -> 37 ;
38 [label="entropy = 0.0\nsamples = 114\nvalue = [114, 0]", fillcolor="#e58139ff"] ;
32 -> 38 ;
39 [label="entropy = 0.0\nsamples = 4\nvalue = [0, 4]", fillcolor="#399de5ff"] ;
31 -> 39 ;
40 [label="LikedOrDisliked <= 50317.0\nentropy = 0.9984\nsamples = 189\nvalue = [90, 99]", fillcolor="#399de517"] ;
8 -> 40 ;
41 [label="entropy = 0.0\nsamples = 38\nvalue = [0, 38]", fillcolor="#399de5ff"] ;
40 -> 41 ;
42 [label="SubCount <= 11426.0\nentropy = 0.9732\nsamples = 151\nvalue = [90, 61]", fillcolor="#e5813952"] ;
40 -> 42 ;
43 [label="SubCount <= 229.0\nentropy = 0.6098\nsamples = 20\nvalue = [3, 17]", fillcolor="#399de5d2"] ;
42 -> 43 ;
44 [label="entropy = 0.8113\nsamples = 4\nvalue = [3, 1]", fillcolor="#e58139aa"] ;
43 -> 44 ;
45 [label="entropy = 0.0\nsamples = 16\nvalue = [0, 16]", fillcolor="#399de5ff"] ;
43 -> 45 ;
46 [label="SubCount <= 25662.0\nentropy = 0.9208\nsamples = 131\nvalue = [87, 44]", fillcolor="#e581397e"] ;
42 -> 46 ;
47 [label="entropy = 0.0\nsamples = 20\nvalue = [20, 0]", fillcolor="#e58139ff"] ;
46 -> 47 ;
48 [label="SubCount <= 58003.0\nentropy = 0.9688\nsamples = 111\nvalue = [67, 44]", fillcolor="#e5813958"] ;
46 -> 48 ;
49 [label="entropy = 0.0\nsamples = 17\nvalue = [0, 17]", fillcolor="#399de5ff"] ;
48 -> 49 ;
50 [label="ViewCount <= 14025000.0\nentropy = 0.8651\nsamples = 94\nvalue = [67, 27]", fillcolor="#e5813998"] ;
48 -> 50 ;
51 [label="LikedOrDisliked <= 111158.5\nentropy = 0.962\nsamples = 70\nvalue = [43, 27]", fillcolor="#e581395f"] ;
50 -> 51 ;
52 [label="entropy = 0.86\nsamples = 60\nvalue = [43, 17]", fillcolor="#e581399a"] ;
51 -> 52 ;
53 [label="entropy = 0.0\nsamples = 10\nvalue = [0, 10]", fillcolor="#399de5ff"] ;
51 -> 53 ;
54 [label="entropy = 0.0\nsamples = 24\nvalue = [24, 0]", fillcolor="#e58139ff"] ;
50 -> 54 ;
55 [label="LikeCount <= 1812.0\nentropy = 0.3024\nsamples = 223\nvalue = [211, 12]", fillcolor="#e58139f0"] ;
1 -> 55 ;
56 [label="entropy = 0.0\nsamples = 115\nvalue = [115, 0]", fillcolor="#e58139ff"] ;
55 -> 56 ;
57 [label="LikeCount <= 1839.5\nentropy = 0.5033\nsamples = 108\nvalue = [96, 12]", fillcolor="#e58139df"] ;
55 -> 57 ;
58 [label="entropy = 0.0\nsamples = 5\nvalue = [0, 5]", fillcolor="#399de5ff"] ;
57 -> 58 ;
59 [label="SubCount <= 3223275.0\nentropy = 0.3583\nsamples = 103\nvalue = [96, 7]", fillcolor="#e58139ec"] ;
57 -> 59 ;
60 [label="Category <= 18.5\nentropy = 0.167\nsamples = 81\nvalue = [79, 2]", fillcolor="#e58139f9"] ;
59 -> 60 ;
61 [label="LikedOrDisliked <= 261133.0\nentropy = 0.5226\nsamples = 17\nvalue = [15, 2]", fillcolor="#e58139dd"] ;
60 -> 61 ;
62 [label="entropy = 0.0\nsamples = 9\nvalue = [9, 0]", fillcolor="#e58139ff"] ;
61 -> 62 ;
63 [label="Category <= 5.5\nentropy = 0.8113\nsamples = 8\nvalue = [6, 2]", fillcolor="#e58139aa"] ;
61 -> 63 ;
64 [label="entropy = 0.0\nsamples = 4\nvalue = [4, 0]", fillcolor="#e58139ff"] ;
63 -> 64 ;
65 [label="SubCount <= 2239863.5\nentropy = 1.0\nsamples = 4\nvalue = [2, 2]", fillcolor="#e5813900"] ;
63 -> 65 ;
66 [label="entropy = 0.0\nsamples = 2\nvalue = [0, 2]", fillcolor="#399de5ff"] ;
65 -> 66 ;
67 [label="entropy = 0.0\nsamples = 2\nvalue = [2, 0]", fillcolor="#e58139ff"] ;
65 -> 67 ;
68 [label="entropy = 0.0\nsamples = 64\nvalue = [64, 0]", fillcolor="#e58139ff"] ;
60 -> 68 ;
69 [label="SubCount <= 3520656.5\nentropy = 0.7732\nsamples = 22\nvalue = [17, 5]", fillcolor="#e58139b4"] ;
59 -> 69 ;
70 [label="entropy = 0.0\nsamples = 2\nvalue = [0, 2]", fillcolor="#399de5ff"] ;
69 -> 70 ;
71 [label="ViewCount <= 32950000.0\nentropy = 0.6098\nsamples = 20\nvalue = [17, 3]", fillcolor="#e58139d2"] ;
69 -> 71 ;
72 [label="entropy = 0.0\nsamples = 12\nvalue = [12, 0]", fillcolor="#e58139ff"] ;
71 -> 72 ;
73 [label="Category <= 24.5\nentropy = 0.9544\nsamples = 8\nvalue = [5, 3]", fillcolor="#e5813966"] ;
71 -> 73 ;
74 [label="entropy = 0.0\nsamples = 3\nvalue = [0, 3]", fillcolor="#399de5ff"] ;
73 -> 74 ;
75 [label="entropy = 0.0\nsamples = 5\nvalue = [5, 0]", fillcolor="#e58139ff"] ;
73 -> 75 ;
76 [label="LikedOrDisliked <= 278684.0\nentropy = 0.9998\nsamples = 4389\nvalue = [2233, 2156]", fillcolor="#e5813909"] ;
0 -> 76 [labeldistance=2.5, labelangle=-45, headlabel="False"] ;
77 [label="LikeCount <= 8113.5\nentropy = 0.8763\nsamples = 750\nvalue = [222, 528]", fillcolor="#399de594"] ;
76 -> 77 ;
78 [label="LikedOrDisliked <= 97812.0\nentropy = 0.94\nsamples = 569\nvalue = [203, 366]", fillcolor="#399de572"] ;
77 -> 78 ;
79 [label="Category <= 18.0\nentropy = 0.4912\nsamples = 140\nvalue = [15, 125]", fillcolor="#399de5e0"] ;
78 -> 79 ;
80 [label="entropy = 0.0\nsamples = 5\nvalue = [5, 0]", fillcolor="#e58139ff"] ;
79 -> 80 ;
81 [label="LikeCount <= 3120.0\nentropy = 0.3809\nsamples = 135\nvalue = [10, 125]", fillcolor="#399de5eb"] ;
79 -> 81 ;
82 [label="ViewCount <= 6675000.0\nentropy = 0.7219\nsamples = 50\nvalue = [10, 40]", fillcolor="#399de5bf"] ;
81 -> 82 ;
83 [label="entropy = 0.0\nsamples = 28\nvalue = [0, 28]", fillcolor="#399de5ff"] ;
82 -> 83 ;
84 [label="Category <= 24.0\nentropy = 0.994\nsamples = 22\nvalue = [10, 12]", fillcolor="#399de52a"] ;
82 -> 84 ;
85 [label="entropy = 0.0\nsamples = 9\nvalue = [9, 0]", fillcolor="#e58139ff"] ;
84 -> 85 ;
86 [label="LikeCountRounded <= 2750.0\nentropy = 0.3912\nsamples = 13\nvalue = [1, 12]", fillcolor="#399de5ea"] ;
84 -> 86 ;
87 [label="SubCount <= 364239.5\nentropy = 0.8113\nsamples = 4\nvalue = [1, 3]", fillcolor="#399de5aa"] ;
86 -> 87 ;
88 [label="entropy = 0.0\nsamples = 2\nvalue = [0, 2]", fillcolor="#399de5ff"] ;
87 -> 88 ;
89 [label="entropy = 1.0\nsamples = 2\nvalue = [1, 1]", fillcolor="#e5813900"] ;
87 -> 89 ;
90 [label="entropy = 0.0\nsamples = 9\nvalue = [0, 9]", fillcolor="#399de5ff"] ;
86 -> 90 ;
91 [label="entropy = 0.0\nsamples = 85\nvalue = [0, 85]", fillcolor="#399de5ff"] ;
81 -> 91 ;
92 [label="LikeCount <= 4341.0\nentropy = 0.989\nsamples = 429\nvalue = [188, 241]", fillcolor="#399de538"] ;
78 -> 92 ;
93 [label="LikeCount <= 4132.5\nentropy = 0.8285\nsamples = 134\nvalue = [99, 35]", fillcolor="#e58139a5"] ;
92 -> 93 ;
94 [label="LikeCount <= 3509.5\nentropy = 0.9119\nsamples = 107\nvalue = [72, 35]", fillcolor="#e5813983"] ;
93 -> 94 ;
95 [label="LikedOrDisliked <= 116488.0\nentropy = 0.7098\nsamples = 67\nvalue = [54, 13]", fillcolor="#e58139c2"] ;
94 -> 95 ;
96 [label="entropy = 0.0\nsamples = 27\nvalue = [27, 0]", fillcolor="#e58139ff"] ;
95 -> 96 ;
97 [label="ViewCount <= 12625000.0\nentropy = 0.9097\nsamples = 40\nvalue = [27, 13]", fillcolor="#e5813984"] ;
95 -> 97 ;
98 [label="entropy = 0.0\nsamples = 9\nvalue = [0, 9]", fillcolor="#399de5ff"] ;
97 -> 98 ;
99 [label="Category <= 18.5\nentropy = 0.5548\nsamples = 31\nvalue = [27, 4]", fillcolor="#e58139d9"] ;
97 -> 99 ;
100 [label="entropy = 0.971\nsamples = 10\nvalue = [6, 4]", fillcolor="#e5813955"] ;
99 -> 100 ;
101 [label="entropy = 0.0\nsamples = 21\nvalue = [21, 0]", fillcolor="#e58139ff"] ;
99 -> 101 ;
102 [label="LikedOrDisliked <= 110941.0\nentropy = 0.9928\nsamples = 40\nvalue = [18, 22]", fillcolor="#399de52e"] ;
94 -> 102 ;
103 [label="entropy = 0.0\nsamples = 11\nvalue = [0, 11]", fillcolor="#399de5ff"] ;
102 -> 103 ;
104 [label="ViewCount <= 12425000.0\nentropy = 0.9576\nsamples = 29\nvalue = [18, 11]", fillcolor="#e5813963"] ;
102 -> 104 ;
105 [label="entropy = 0.0\nsamples = 7\nvalue = [7, 0]", fillcolor="#e58139ff"] ;
104 -> 105 ;
106 [label="ViewCount <= 13575000.0\nentropy = 1.0\nsamples = 22\nvalue = [11, 11]", fillcolor="#e5813900"] ;
104 -> 106 ;
107 [label="entropy = 0.0\nsamples = 6\nvalue = [0, 6]", fillcolor="#399de5ff"] ;
106 -> 107 ;
108 [label="entropy = 0.896\nsamples = 16\nvalue = [11, 5]", fillcolor="#e581398b"] ;
106 -> 108 ;
109 [label="entropy = 0.0\nsamples = 27\nvalue = [27, 0]", fillcolor="#e58139ff"] ;
93 -> 109 ;
110 [label="LikedOrDisliked <= 256477.5\nentropy = 0.8834\nsamples = 295\nvalue = [89, 206]", fillcolor="#399de591"] ;
92 -> 110 ;
111 [label="SubCount <= 957830.0\nentropy = 0.8444\nsamples = 283\nvalue = [77, 206]", fillcolor="#399de5a0"] ;
110 -> 111 ;
112 [label="SubCount <= 884211.5\nentropy = 0.9497\nsamples = 141\nvalue = [52, 89]", fillcolor="#399de56a"] ;
111 -> 112 ;
113 [label="LikeCount <= 4703.0\nentropy = 0.8585\nsamples = 124\nvalue = [35, 89]", fillcolor="#399de59b"] ;
112 -> 113 ;
114 [label="entropy = 0.0\nsamples = 14\nvalue = [14, 0]", fillcolor="#e58139ff"] ;
113 -> 114 ;
115 [label="LikedOrDisliked <= 210608.0\nentropy = 0.7034\nsamples = 110\nvalue = [21, 89]", fillcolor="#399de5c3"] ;
113 -> 115 ;
116 [label="entropy = 0.5539\nsamples = 101\nvalue = [13, 88]", fillcolor="#399de5d9"] ;
115 -> 116 ;
117 [label="entropy = 0.5033\nsamples = 9\nvalue = [8, 1]", fillcolor="#e58139df"] ;
115 -> 117 ;
118 [label="entropy = 0.0\nsamples = 17\nvalue = [17, 0]", fillcolor="#e58139ff"] ;
112 -> 118 ;
119 [label="Category <= 8.0\nentropy = 0.6714\nsamples = 142\nvalue = [25, 117]", fillcolor="#399de5c9"] ;
111 -> 119 ;
120 [label="entropy = 0.0\nsamples = 5\nvalue = [5, 0]", fillcolor="#e58139ff"] ;
119 -> 120 ;
121 [label="LikeCount <= 4727.5\nentropy = 0.5997\nsamples = 137\nvalue = [20, 117]", fillcolor="#399de5d3"] ;
119 -> 121 ;
122 [label="entropy = 0.0\nsamples = 30\nvalue = [0, 30]", fillcolor="#399de5ff"] ;
121 -> 122 ;
123 [label="LikeCountRounded <= 4750.0\nentropy = 0.695\nsamples = 107\nvalue = [20, 87]", fillcolor="#399de5c4"] ;
121 -> 123 ;
124 [label="entropy = 0.0\nsamples = 7\nvalue = [7, 0]", fillcolor="#e58139ff"] ;
123 -> 124 ;
125 [label="entropy = 0.5574\nsamples = 100\nvalue = [13, 87]", fillcolor="#399de5d9"] ;
123 -> 125 ;
126 [label="entropy = 0.0\nsamples = 12\nvalue = [12, 0]", fillcolor="#e58139ff"] ;
110 -> 126 ;
127 [label="SubCount <= 314145.0\nentropy = 0.4846\nsamples = 181\nvalue = [19, 162]", fillcolor="#399de5e1"] ;
77 -> 127 ;
128 [label="LikeCountRounded <= 8750.0\nentropy = 0.9597\nsamples = 34\nvalue = [13, 21]", fillcolor="#399de561"] ;
127 -> 128 ;
129 [label="entropy = 0.0\nsamples = 11\nvalue = [0, 11]", fillcolor="#399de5ff"] ;
128 -> 129 ;
130 [label="LikedOrDisliked <= 263727.5\nentropy = 0.9877\nsamples = 23\nvalue = [13, 10]", fillcolor="#e581393b"] ;
128 -> 130 ;
131 [label="LikedOrDisliked <= 172476.5\nentropy = 0.7871\nsamples = 17\nvalue = [13, 4]", fillcolor="#e58139b1"] ;
130 -> 131 ;
132 [label="entropy = 0.0\nsamples = 4\nvalue = [0, 4]", fillcolor="#399de5ff"] ;
131 -> 132 ;
133 [label="entropy = 0.0\nsamples = 13\nvalue = [13, 0]", fillcolor="#e58139ff"] ;
131 -> 133 ;
134 [label="entropy = 0.0\nsamples = 6\nvalue = [0, 6]", fillcolor="#399de5ff"] ;
130 -> 134 ;
135 [label="ViewCount <= 25550000.0\nentropy = 0.246\nsamples = 147\nvalue = [6, 141]", fillcolor="#399de5f4"] ;
127 -> 135 ;
136 [label="LikeCount <= 9777.0\nentropy = 0.0691\nsamples = 121\nvalue = [1, 120]", fillcolor="#399de5fd"] ;
135 -> 136 ;
137 [label="LikedOrDisliked <= 204493.5\nentropy = 0.2975\nsamples = 19\nvalue = [1, 18]", fillcolor="#399de5f1"] ;
136 -> 137 ;
138 [label="entropy = 0.0\nsamples = 15\nvalue = [0, 15]", fillcolor="#399de5ff"] ;
137 -> 138 ;
139 [label="entropy = 0.8113\nsamples = 4\nvalue = [1, 3]", fillcolor="#399de5aa"] ;
137 -> 139 ;
140 [label="entropy = 0.0\nsamples = 102\nvalue = [0, 102]", fillcolor="#399de5ff"] ;
136 -> 140 ;
141 [label="LikeCount <= 12122.5\nentropy = 0.7063\nsamples = 26\nvalue = [5, 21]", fillcolor="#399de5c2"] ;
135 -> 141 ;
142 [label="entropy = 0.0\nsamples = 20\nvalue = [0, 20]", fillcolor="#399de5ff"] ;
141 -> 142 ;
143 [label="SubCount <= 2987256.5\nentropy = 0.65\nsamples = 6\nvalue = [5, 1]", fillcolor="#e58139cc"] ;
141 -> 143 ;
144 [label="entropy = 0.9183\nsamples = 3\nvalue = [2, 1]", fillcolor="#e581397f"] ;
143 -> 144 ;
145 [label="entropy = 0.0\nsamples = 3\nvalue = [3, 0]", fillcolor="#e58139ff"] ;
143 -> 145 ;
146 [label="LikeCount <= 9438.0\nentropy = 0.992\nsamples = 3639\nvalue = [2011, 1628]", fillcolor="#e5813931"] ;
76 -> 146 ;
147 [label="ViewCount <= 53975000.0\nentropy = 0.6054\nsamples = 479\nvalue = [408, 71]", fillcolor="#e58139d3"] ;
146 -> 147 ;
148 [label="SubCount <= 741359.5\nentropy = 0.7814\nsamples = 263\nvalue = [202, 61]", fillcolor="#e58139b2"] ;
147 -> 148 ;
149 [label="LikeCount <= 5598.0\nentropy = 0.9536\nsamples = 115\nvalue = [72, 43]", fillcolor="#e5813967"] ;
148 -> 149 ;
150 [label="SubCount <= 170878.5\nentropy = 0.6037\nsamples = 61\nvalue = [52, 9]", fillcolor="#e58139d3"] ;
149 -> 150 ;
151 [label="SubCount <= 151237.0\nentropy = 0.8691\nsamples = 31\nvalue = [22, 9]", fillcolor="#e5813997"] ;
150 -> 151 ;
152 [label="LikedOrDisliked <= 482494.5\nentropy = 0.5294\nsamples = 25\nvalue = [22, 3]", fillcolor="#e58139dc"] ;
151 -> 152 ;
153 [label="LikedOrDisliked <= 386808.0\nentropy = 0.258\nsamples = 23\nvalue = [22, 1]", fillcolor="#e58139f3"] ;
152 -> 153 ;
154 [label="entropy = 0.0\nsamples = 18\nvalue = [18, 0]", fillcolor="#e58139ff"] ;
153 -> 154 ;
155 [label="entropy = 0.7219\nsamples = 5\nvalue = [4, 1]", fillcolor="#e58139bf"] ;
153 -> 155 ;
156 [label="entropy = 0.0\nsamples = 2\nvalue = [0, 2]", fillcolor="#399de5ff"] ;
152 -> 156 ;
157 [label="entropy = 0.0\nsamples = 6\nvalue = [0, 6]", fillcolor="#399de5ff"] ;
151 -> 157 ;
158 [label="entropy = 0.0\nsamples = 30\nvalue = [30, 0]", fillcolor="#e58139ff"] ;
150 -> 158 ;
159 [label="LikeCount <= 6049.5\nentropy = 0.951\nsamples = 54\nvalue = [20, 34]", fillcolor="#399de569"] ;
149 -> 159 ;
160 [label="entropy = 0.0\nsamples = 18\nvalue = [0, 18]", fillcolor="#399de5ff"] ;
159 -> 160 ;
161 [label="LikeCount <= 6558.5\nentropy = 0.9911\nsamples = 36\nvalue = [20, 16]", fillcolor="#e5813933"] ;
159 -> 161 ;
162 [label="entropy = 0.0\nsamples = 16\nvalue = [16, 0]", fillcolor="#e58139ff"] ;
161 -> 162 ;
163 [label="ViewCount <= 47650000.0\nentropy = 0.7219\nsamples = 20\nvalue = [4, 16]", fillcolor="#399de5bf"] ;
161 -> 163 ;
164 [label="LikedOrDisliked <= 330382.0\nentropy = 0.9911\nsamples = 9\nvalue = [4, 5]", fillcolor="#399de533"] ;
163 -> 164 ;
165 [label="entropy = 0.65\nsamples = 6\nvalue = [1, 5]", fillcolor="#399de5cc"] ;
164 -> 165 ;
166 [label="entropy = 0.0\nsamples = 3\nvalue = [3, 0]", fillcolor="#e58139ff"] ;
164 -> 166 ;
167 [label="entropy = 0.0\nsamples = 11\nvalue = [0, 11]", fillcolor="#399de5ff"] ;
163 -> 167 ;
168 [label="ViewCount <= 29975000.0\nentropy = 0.534\nsamples = 148\nvalue = [130, 18]", fillcolor="#e58139dc"] ;
148 -> 168 ;
169 [label="LikeCount <= 3930.5\nentropy = 0.9183\nsamples = 24\nvalue = [16, 8]", fillcolor="#e581397f"] ;
168 -> 169 ;
170 [label="entropy = 0.0\nsamples = 6\nvalue = [0, 6]", fillcolor="#399de5ff"] ;
169 -> 170 ;
171 [label="SubCount <= 3224142.5\nentropy = 0.5033\nsamples = 18\nvalue = [16, 2]", fillcolor="#e58139df"] ;
169 -> 171 ;
172 [label="entropy = 0.0\nsamples = 16\nvalue = [16, 0]", fillcolor="#e58139ff"] ;
171 -> 172 ;
173 [label="entropy = 0.0\nsamples = 2\nvalue = [0, 2]", fillcolor="#399de5ff"] ;
171 -> 173 ;
174 [label="SubCount <= 2378921.0\nentropy = 0.4044\nsamples = 124\nvalue = [114, 10]", fillcolor="#e58139e9"] ;
168 -> 174 ;
175 [label="entropy = 0.0\nsamples = 54\nvalue = [54, 0]", fillcolor="#e58139ff"] ;
174 -> 175 ;
176 [label="ViewCount <= 49050000.0\nentropy = 0.5917\nsamples = 70\nvalue = [60, 10]", fillcolor="#e58139d4"] ;
174 -> 176 ;
177 [label="LikeCount <= 8049.5\nentropy = 0.3451\nsamples = 62\nvalue = [58, 4]", fillcolor="#e58139ed"] ;
176 -> 177 ;
178 [label="entropy = 0.0\nsamples = 48\nvalue = [48, 0]", fillcolor="#e58139ff"] ;
177 -> 178 ;
179 [label="LikedOrDisliked <= 380926.0\nentropy = 0.8631\nsamples = 14\nvalue = [10, 4]", fillcolor="#e5813999"] ;
177 -> 179 ;
180 [label="entropy = 0.0\nsamples = 4\nvalue = [0, 4]", fillcolor="#399de5ff"] ;
179 -> 180 ;
181 [label="entropy = 0.0\nsamples = 10\nvalue = [10, 0]", fillcolor="#e58139ff"] ;
179 -> 181 ;
182 [label="LikeCount <= 4798.0\nentropy = 0.8113\nsamples = 8\nvalue = [2, 6]", fillcolor="#399de5aa"] ;
176 -> 182 ;
183 [label="entropy = 0.0\nsamples = 2\nvalue = [2, 0]", fillcolor="#e58139ff"] ;
182 -> 183 ;
184 [label="entropy = 0.0\nsamples = 6\nvalue = [0, 6]", fillcolor="#399de5ff"] ;
182 -> 184 ;
185 [label="LikeCount <= 8343.5\nentropy = 0.2705\nsamples = 216\nvalue = [206, 10]", fillcolor="#e58139f3"] ;
147 -> 185 ;
186 [label="entropy = 0.0\nsamples = 165\nvalue = [165, 0]", fillcolor="#e58139ff"] ;
185 -> 186 ;
187 [label="SubCount <= 62748.0\nentropy = 0.714\nsamples = 51\nvalue = [41, 10]", fillcolor="#e58139c1"] ;
185 -> 187 ;
188 [label="entropy = 0.0\nsamples = 8\nvalue = [0, 8]", fillcolor="#399de5ff"] ;
187 -> 188 ;
189 [label="LikeCount <= 8388.5\nentropy = 0.2714\nsamples = 43\nvalue = [41, 2]", fillcolor="#e58139f3"] ;
187 -> 189 ;
190 [label="entropy = 0.0\nsamples = 2\nvalue = [0, 2]", fillcolor="#399de5ff"] ;
189 -> 190 ;
191 [label="entropy = 0.0\nsamples = 41\nvalue = [41, 0]", fillcolor="#e58139ff"] ;
189 -> 191 ;
192 [label="ViewCount <= 1351375104.0\nentropy = 0.9998\nsamples = 3160\nvalue = [1603, 1557]", fillcolor="#e5813907"] ;
146 -> 192 ;
193 [label="LikeCount <= 127602.5\nentropy = 0.9984\nsamples = 2812\nvalue = [1339, 1473]", fillcolor="#399de517"] ;
192 -> 193 ;
194 [label="LikedOrDisliked <= 1104381.0\nentropy = 0.9993\nsamples = 2416\nvalue = [1246, 1170]", fillcolor="#e5813910"] ;
193 -> 194 ;
195 [label="LikeCountRounded <= 25250.0\nentropy = 0.9604\nsamples = 1012\nvalue = [388, 624]", fillcolor="#399de560"] ;
194 -> 195 ;
196 [label="LikedOrDisliked <= 525721.0\nentropy = 0.9998\nsamples = 709\nvalue = [349, 360]", fillcolor="#399de508"] ;
195 -> 196 ;
197 [label="LikeCount <= 15255.5\nentropy = 0.9315\nsamples = 363\nvalue = [126, 237]", fillcolor="#399de577"] ;
196 -> 197 ;
198 [label="LikedOrDisliked <= 470092.0\nentropy = 0.9982\nsamples = 198\nvalue = [94, 104]", fillcolor="#399de519"] ;
197 -> 198 ;
199 [label="entropy = 0.9953\nsamples = 174\nvalue = [94, 80]", fillcolor="#e5813926"] ;
198 -> 199 ;
200 [label="entropy = 0.0\nsamples = 24\nvalue = [0, 24]", fillcolor="#399de5ff"] ;
198 -> 200 ;
201 [label="ViewCount <= 41975000.0\nentropy = 0.7096\nsamples = 165\nvalue = [32, 133]", fillcolor="#399de5c2"] ;
197 -> 201 ;
202 [label="entropy = 0.3686\nsamples = 99\nvalue = [7, 92]", fillcolor="#399de5ec"] ;
201 -> 202 ;
203 [label="entropy = 0.9572\nsamples = 66\nvalue = [25, 41]", fillcolor="#399de564"] ;
201 -> 203 ;
204 [label="Category <= 27.5\nentropy = 0.9389\nsamples = 346\nvalue = [223, 123]", fillcolor="#e5813972"] ;
196 -> 204 ;
205 [label="ViewCount <= 54525000.0\nentropy = 0.9635\nsamples = 317\nvalue = [194, 123]", fillcolor="#e581395d"] ;
204 -> 205 ;
206 [label="entropy = 0.0\nsamples = 26\nvalue = [26, 0]", fillcolor="#e58139ff"] ;
205 -> 206 ;
207 [label="entropy = 0.9827\nsamples = 291\nvalue = [168, 123]", fillcolor="#e5813944"] ;
205 -> 207 ;
208 [label="entropy = 0.0\nsamples = 29\nvalue = [29, 0]", fillcolor="#e58139ff"] ;
204 -> 208 ;
209 [label="ViewCount <= 71900000.0\nentropy = 0.5539\nsamples = 303\nvalue = [39, 264]", fillcolor="#399de5d9"] ;
195 -> 209 ;
210 [label="SubCount <= 826564.0\nentropy = 0.2164\nsamples = 116\nvalue = [4, 112]", fillcolor="#399de5f6"] ;
209 -> 210 ;
211 [label="LikeCount <= 28913.0\nentropy = 0.8454\nsamples = 11\nvalue = [3, 8]", fillcolor="#399de59f"] ;
210 -> 211 ;
212 [label="entropy = 0.0\nsamples = 3\nvalue = [3, 0]", fillcolor="#e58139ff"] ;
211 -> 212 ;
213 [label="entropy = 0.0\nsamples = 8\nvalue = [0, 8]", fillcolor="#399de5ff"] ;
211 -> 213 ;
214 [label="LikeCountRounded <= 33250.0\nentropy = 0.0776\nsamples = 105\nvalue = [1, 104]", fillcolor="#399de5fd"] ;
210 -> 214 ;
215 [label="entropy = 0.0\nsamples = 71\nvalue = [0, 71]", fillcolor="#399de5ff"] ;
214 -> 215 ;
216 [label="entropy = 0.1914\nsamples = 34\nvalue = [1, 33]", fillcolor="#399de5f7"] ;
214 -> 216 ;
217 [label="SubCount <= 11522950.0\nentropy = 0.6955\nsamples = 187\nvalue = [35, 152]", fillcolor="#399de5c4"] ;
209 -> 217 ;
218 [label="LikedOrDisliked <= 842530.0\nentropy = 0.6458\nsamples = 182\nvalue = [30, 152]", fillcolor="#399de5cd"] ;
217 -> 218 ;
219 [label="entropy = 0.9357\nsamples = 54\nvalue = [19, 35]", fillcolor="#399de575"] ;
218 -> 219 ;
220 [label="entropy = 0.4228\nsamples = 128\nvalue = [11, 117]", fillcolor="#399de5e7"] ;
218 -> 220 ;
221 [label="entropy = 0.0\nsamples = 5\nvalue = [5, 0]", fillcolor="#e58139ff"] ;
217 -> 221 ;
222 [label="LikeCount <= 54509.5\nentropy = 0.9641\nsamples = 1404\nvalue = [858, 546]", fillcolor="#e581395d"] ;
194 -> 222 ;
223 [label="ViewCount <= 344000000.0\nentropy = 0.7505\nsamples = 731\nvalue = [574, 157]", fillcolor="#e58139b9"] ;
222 -> 223 ;
224 [label="LikeCount <= 19294.5\nentropy = 0.8371\nsamples = 588\nvalue = [431, 157]", fillcolor="#e58139a2"] ;
223 -> 224 ;
225 [label="Category <= 23.5\nentropy = 0.108\nsamples = 70\nvalue = [69, 1]", fillcolor="#e58139fb"] ;
224 -> 225 ;
226 [label="entropy = 0.0\nsamples = 45\nvalue = [45, 0]", fillcolor="#e58139ff"] ;
225 -> 226 ;
227 [label="entropy = 0.2423\nsamples = 25\nvalue = [24, 1]", fillcolor="#e58139f4"] ;
225 -> 227 ;
228 [label="SubCount <= 13549190.0\nentropy = 0.8827\nsamples = 518\nvalue = [362, 156]", fillcolor="#e5813991"] ;
224 -> 228 ;
229 [label="entropy = 0.8474\nsamples = 496\nvalue = [360, 136]", fillcolor="#e581399f"] ;
228 -> 229 ;
230 [label="entropy = 0.4395\nsamples = 22\nvalue = [2, 20]", fillcolor="#399de5e6"] ;
228 -> 230 ;
231 [label="entropy = 0.0\nsamples = 143\nvalue = [143, 0]", fillcolor="#e58139ff"] ;
223 -> 231 ;
232 [label="ViewCount <= 338000000.0\nentropy = 0.9824\nsamples = 673\nvalue = [284, 389]", fillcolor="#399de545"] ;
222 -> 232 ;
233 [label="Category <= 23.5\nentropy = 0.8747\nsamples = 397\nvalue = [117, 280]", fillcolor="#399de594"] ;
232 -> 233 ;
234 [label="SubCount <= 941046.5\nentropy = 0.6385\nsamples = 204\nvalue = [33, 171]", fillcolor="#399de5ce"] ;
233 -> 234 ;
235 [label="entropy = 0.0\nsamples = 41\nvalue = [0, 41]", fillcolor="#399de5ff"] ;
234 -> 235 ;
236 [label="entropy = 0.7268\nsamples = 163\nvalue = [33, 130]", fillcolor="#399de5be"] ;
234 -> 236 ;
237 [label="ViewCount <= 180375008.0\nentropy = 0.9879\nsamples = 193\nvalue = [84, 109]", fillcolor="#399de53a"] ;
233 -> 237 ;
238 [label="entropy = 0.6813\nsamples = 72\nvalue = [13, 59]", fillcolor="#399de5c7"] ;
237 -> 238 ;
239 [label="entropy = 0.9782\nsamples = 121\nvalue = [71, 50]", fillcolor="#e581394b"] ;
237 -> 239 ;
240 [label="SubCount <= 13404499.0\nentropy = 0.9679\nsamples = 276\nvalue = [167, 109]", fillcolor="#e5813959"] ;
232 -> 240 ;
241 [label="SubCount <= 1822695.5\nentropy = 0.9142\nsamples = 246\nvalue = [165, 81]", fillcolor="#e5813982"] ;
240 -> 241 ;
242 [label="entropy = 0.9766\nsamples = 78\nvalue = [32, 46]", fillcolor="#399de54e"] ;
241 -> 242 ;
243 [label="entropy = 0.7383\nsamples = 168\nvalue = [133, 35]", fillcolor="#e58139bc"] ;
241 -> 243 ;
244 [label="ViewCount <= 457675008.0\nentropy = 0.3534\nsamples = 30\nvalue = [2, 28]", fillcolor="#399de5ed"] ;
240 -> 244 ;
245 [label="entropy = 1.0\nsamples = 4\nvalue = [2, 2]", fillcolor="#e5813900"] ;
244 -> 245 ;
246 [label="entropy = 0.0\nsamples = 26\nvalue = [0, 26]", fillcolor="#399de5ff"] ;
244 -> 246 ;
247 [label="LikeCount <= 222153.0\nentropy = 0.7864\nsamples = 396\nvalue = [93, 303]", fillcolor="#399de5b1"] ;
193 -> 247 ;
248 [label="SubCount <= 1818396.0\nentropy = 0.8872\nsamples = 246\nvalue = [75, 171]", fillcolor="#399de58f"] ;
247 -> 248 ;
249 [label="LikeCountRounded <= 150750.0\nentropy = 0.5485\nsamples = 71\nvalue = [9, 62]", fillcolor="#399de5da"] ;
248 -> 249 ;
250 [label="entropy = 0.0\nsamples = 46\nvalue = [0, 46]", fillcolor="#399de5ff"] ;
249 -> 250 ;
251 [label="SubCount <= 621835.0\nentropy = 0.9427\nsamples = 25\nvalue = [9, 16]", fillcolor="#399de570"] ;
249 -> 251 ;
252 [label="entropy = 0.0\nsamples = 8\nvalue = [8, 0]", fillcolor="#e58139ff"] ;
251 -> 252 ;
253 [label="ViewCount <= 934099968.0\nentropy = 0.3228\nsamples = 17\nvalue = [1, 16]", fillcolor="#399de5ef"] ;
251 -> 253 ;
254 [label="entropy = 0.0\nsamples = 15\nvalue = [0, 15]", fillcolor="#399de5ff"] ;
253 -> 254 ;
255 [label="entropy = 1.0\nsamples = 2\nvalue = [1, 1]", fillcolor="#e5813900"] ;
253 -> 255 ;
256 [label="SubCount <= 2065213.0\nentropy = 0.956\nsamples = 175\nvalue = [66, 109]", fillcolor="#399de565"] ;
248 -> 256 ;
257 [label="ViewCount <= 632124992.0\nentropy = 0.5033\nsamples = 18\nvalue = [16, 2]", fillcolor="#e58139df"] ;
256 -> 257 ;
258 [label="entropy = 0.0\nsamples = 2\nvalue = [0, 2]", fillcolor="#399de5ff"] ;
257 -> 258 ;
259 [label="entropy = 0.0\nsamples = 16\nvalue = [16, 0]", fillcolor="#e58139ff"] ;
257 -> 259 ;
260 [label="ViewCount <= 993949952.0\nentropy = 0.9027\nsamples = 157\nvalue = [50, 107]", fillcolor="#399de588"] ;
256 -> 260 ;
261 [label="LikedOrDisliked <= 5075739.5\nentropy = 0.9446\nsamples = 138\nvalue = [50, 88]", fillcolor="#399de56e"] ;
260 -> 261 ;
262 [label="entropy = 0.7713\nsamples = 84\nvalue = [19, 65]", fillcolor="#399de5b4"] ;
261 -> 262 ;
263 [label="entropy = 0.9841\nsamples = 54\nvalue = [31, 23]", fillcolor="#e5813942"] ;
261 -> 263 ;
264 [label="entropy = 0.0\nsamples = 19\nvalue = [0, 19]", fillcolor="#399de5ff"] ;
260 -> 264 ;
265 [label="Category <= 25.0\nentropy = 0.5294\nsamples = 150\nvalue = [18, 132]", fillcolor="#399de5dc"] ;
247 -> 265 ;
266 [label="SubCount <= 16198638.0\nentropy = 0.3496\nsamples = 137\nvalue = [9, 128]", fillcolor="#399de5ed"] ;
265 -> 266 ;
267 [label="LikeCount <= 227677.5\nentropy = 0.1744\nsamples = 115\nvalue = [3, 112]", fillcolor="#399de5f8"] ;
266 -> 267 ;
268 [label="LikedOrDisliked <= 9362535.0\nentropy = 0.7219\nsamples = 10\nvalue = [2, 8]", fillcolor="#399de5bf"] ;
267 -> 268 ;
269 [label="entropy = 0.0\nsamples = 8\nvalue = [0, 8]", fillcolor="#399de5ff"] ;
268 -> 269 ;
270 [label="entropy = 0.0\nsamples = 2\nvalue = [2, 0]", fillcolor="#e58139ff"] ;
268 -> 270 ;
271 [label="SubCount <= 4456237.0\nentropy = 0.0776\nsamples = 105\nvalue = [1, 104]", fillcolor="#399de5fd"] ;
267 -> 271 ;
272 [label="entropy = 0.1654\nsamples = 41\nvalue = [1, 40]", fillcolor="#399de5f9"] ;
271 -> 272 ;
273 [label="entropy = 0.0\nsamples = 64\nvalue = [0, 64]", fillcolor="#399de5ff"] ;
271 -> 273 ;
274 [label="LikeCountRounded <= 396500.0\nentropy = 0.8454\nsamples = 22\nvalue = [6, 16]", fillcolor="#399de59f"] ;
266 -> 274 ;
275 [label="SubCount <= 20999550.0\nentropy = 0.3228\nsamples = 17\nvalue = [1, 16]", fillcolor="#399de5ef"] ;
274 -> 275 ;
276 [label="entropy = 0.0\nsamples = 15\nvalue = [0, 15]", fillcolor="#399de5ff"] ;
275 -> 276 ;
277 [label="entropy = 1.0\nsamples = 2\nvalue = [1, 1]", fillcolor="#e5813900"] ;
275 -> 277 ;
278 [label="entropy = 0.0\nsamples = 5\nvalue = [5, 0]", fillcolor="#e58139ff"] ;
274 -> 278 ;
279 [label="SubCount <= 4590208.5\nentropy = 0.8905\nsamples = 13\nvalue = [9, 4]", fillcolor="#e581398e"] ;
265 -> 279 ;
280 [label="entropy = 0.0\nsamples = 4\nvalue = [0, 4]", fillcolor="#399de5ff"] ;
279 -> 280 ;
281 [label="entropy = 0.0\nsamples = 9\nvalue = [9, 0]", fillcolor="#e58139ff"] ;
279 -> 281 ;
282 [label="LikedOrDisliked <= 110185664.0\nentropy = 0.7973\nsamples = 348\nvalue = [264, 84]", fillcolor="#e58139ae"] ;
192 -> 282 ;
283 [label="SubCount <= 3951590.5\nentropy = 0.8761\nsamples = 284\nvalue = [200, 84]", fillcolor="#e5813994"] ;
282 -> 283 ;
284 [label="SubCount <= 992236.0\nentropy = 0.5079\nsamples = 142\nvalue = [126, 16]", fillcolor="#e58139df"] ;
283 -> 284 ;
285 [label="entropy = 0.0\nsamples = 44\nvalue = [44, 0]", fillcolor="#e58139ff"] ;
284 -> 285 ;
286 [label="SubCount <= 1111910.0\nentropy = 0.6421\nsamples = 98\nvalue = [82, 16]", fillcolor="#e58139cd"] ;
284 -> 286 ;
287 [label="entropy = 0.0\nsamples = 5\nvalue = [0, 5]", fillcolor="#399de5ff"] ;
286 -> 287 ;
288 [label="SubCount <= 2451350.5\nentropy = 0.5244\nsamples = 93\nvalue = [82, 11]", fillcolor="#e58139dd"] ;
286 -> 288 ;
289 [label="entropy = 0.0\nsamples = 37\nvalue = [37, 0]", fillcolor="#e58139ff"] ;
288 -> 289 ;
290 [label="SubCount <= 2502126.0\nentropy = 0.7147\nsamples = 56\nvalue = [45, 11]", fillcolor="#e58139c1"] ;
288 -> 290 ;
291 [label="entropy = 0.0\nsamples = 5\nvalue = [0, 5]", fillcolor="#399de5ff"] ;
290 -> 291 ;
292 [label="entropy = 0.5226\nsamples = 51\nvalue = [45, 6]", fillcolor="#e58139dd"] ;
290 -> 292 ;
293 [label="LikeCountRounded <= 446250.0\nentropy = 0.9987\nsamples = 142\nvalue = [74, 68]", fillcolor="#e5813915"] ;
283 -> 293 ;
294 [label="LikedOrDisliked <= 22196762.0\nentropy = 0.8893\nsamples = 75\nvalue = [52, 23]", fillcolor="#e581398e"] ;
293 -> 294 ;
295 [label="ViewCount <= 1558974976.0\nentropy = 0.9973\nsamples = 49\nvalue = [26, 23]", fillcolor="#e581391d"] ;
294 -> 295 ;
296 [label="entropy = 0.0\nsamples = 18\nvalue = [18, 0]", fillcolor="#e58139ff"] ;
295 -> 296 ;
297 [label="LikeCount <= 139068.5\nentropy = 0.8238\nsamples = 31\nvalue = [8, 23]", fillcolor="#399de5a6"] ;
295 -> 297 ;
298 [label="entropy = 0.0\nsamples = 4\nvalue = [4, 0]", fillcolor="#e58139ff"] ;
297 -> 298 ;
299 [label="entropy = 0.6052\nsamples = 27\nvalue = [4, 23]", fillcolor="#399de5d3"] ;
297 -> 299 ;
300 [label="entropy = 0.0\nsamples = 26\nvalue = [26, 0]", fillcolor="#e58139ff"] ;
294 -> 300 ;
301 [label="ViewCount <= 3314099968.0\nentropy = 0.9132\nsamples = 67\nvalue = [22, 45]", fillcolor="#399de582"] ;
293 -> 301 ;
302 [label="entropy = 0.0\nsamples = 21\nvalue = [0, 21]", fillcolor="#399de5ff"] ;
301 -> 302 ;
303 [label="SubCount <= 13056260.0\nentropy = 0.9986\nsamples = 46\nvalue = [22, 24]", fillcolor="#399de515"] ;
301 -> 303 ;
304 [label="SubCount <= 7021075.0\nentropy = 0.8454\nsamples = 33\nvalue = [9, 24]", fillcolor="#399de59f"] ;
303 -> 304 ;
305 [label="entropy = 0.8113\nsamples = 12\nvalue = [9, 3]", fillcolor="#e58139aa"] ;
304 -> 305 ;
306 [label="entropy = 0.0\nsamples = 21\nvalue = [0, 21]", fillcolor="#399de5ff"] ;
304 -> 306 ;
307 [label="entropy = 0.0\nsamples = 13\nvalue = [13, 0]", fillcolor="#e58139ff"] ;
303 -> 307 ;
308 [label="entropy = 0.0\nsamples = 64\nvalue = [64, 0]", fillcolor="#e58139ff"] ;
282 -> 308 ;
}